<?xml version="1.0"?>
<opencv_storage>
<my_svm type_id="opencv-ml-svm">
  <svm_type>C_SVC</svm_type>
  <kernel><type>RBF</type>
    <gamma>8.</gamma></kernel>
  <C>10.</C>
  <term_criteria><epsilon>1.1920928955078125e-007</epsilon>
    <iterations>2147483647</iterations></term_criteria>
  <var_all>3</var_all>
  <var_count>3</var_count>
  <class_count>2</class_count>
  <class_labels type_id="opencv-matrix">
    <rows>1</rows>
    <cols>2</cols>
    <dt>i</dt>
    <data>
      -1 1</data></class_labels>
  <sv_total>181</sv_total>
  <support_vectors>
    <_>
      1. 1. 1.</_>
    <_>
      1. 1. 1.62830126e+000</_>
    <_>
      1.08420217e-019 -1.50544965e+000 1.08420217e-019</_>
    <_>
      1.60252535e+000 -2. 1.62735975e+000</_>
    <_>
      -2. 1.67451394e+000 -3.68934881e+019</_>
    <_>
      1.61568260e+000 0. -1.82237995e+000</_>
    <_>
      -1.08420217e-019 -1.52013481e+000 -3.68934881e+019</_>
    <_>
      0. -1.51263940e+000 3.68934881e+019</_>
    <_>
      -1.30334365e+000 1.08420217e-019 1.56024158e+000</_>
    <_>
      -2. 1.68110335e+000 2.</_>
    <_>
      -1.31438601e+000 -1.08420217e-019 -1.81226611e+000</_>
    <_>
      1.08420217e-019 -1.52548516e+000 -1.08420217e-019</_>
    <_>
      -3.68934881e+019 1.68448699e+000 -1.08420217e-019</_>
    <_>
      -1.33463144e+000 2. -1.80936515e+000</_>
    <_>
      -3.68934881e+019 -1.52810681e+000 -2.</_>
    <_>
      -1.31599557e+000 0. 1.60788202e+000</_>
    <_>
      -3.68934881e+019 -1.52511084e+000 -1.08420217e-019</_>
    <_>
      -8.22725654e-001 0. 1.62848687e+000</_>
    <_>
      -2. -1.53028738e+000 -2.</_>
    <_>
      -1.32036221e+000 0. 1.50671494e+000</_>
    <_>
      -1.34687531e+000 0. -1.77088761e+000</_>
    <_>
      2. -1.42505229e+000 0.</_>
    <_>
      1.34476972e+000 3.68934881e+019 1.61416817e+000</_>
    <_>
      -1.08420217e-019 -1.49070215e+000 3.68934881e+019</_>
    <_>
      1.43737972e+000 2. 1.62573326e+000</_>
    <_>
      -1.29433560e+000 0. -1.77873778e+000</_>
    <_>
      1.22168636e+000 -2. -1.75520456e+000</_>
    <_>
      0. -1.06832826e+000 2.</_>
    <_>
      1.46441984e+000 0. 1.53678489e+000</_>
    <_>
      1.08420217e-019 1.58718264e+000 1.08420217e-019</_>
    <_>
      -1.28427482e+000 2. -1.65263152e+000</_>
    <_>
      -2. -1.39396966e+000 0.</_>
    <_>
      1.64215982e+000 -3.68934881e+019 1.59976768e+000</_>
    <_>
      0. 1.71910870e+000 3.68934881e+019</_>
    <_>
      1.48604739e+000 3.68934881e+019 -1.75454283e+000</_>
    <_>
      0. -1.51946270e+000 -1.08420217e-019</_>
    <_>
      -1.26185894e+000 1.08420217e-019 1.62837386e+000</_>
    <_>
      2. 1.83527684e+000 -2.</_>
    <_>
      -1.33970773e+000 1.08420217e-019 1.61480522e+000</_>
    <_>
      3.68934881e+019 -1.50673878e+000 3.68934881e+019</_>
    <_>
      -1.33305395e+000 3.68934881e+019 -1.79026437e+000</_>
    <_>
      2. -1.42923629e+000 1.08420217e-019</_>
    <_>
      1.57953167e+000 3.68934881e+019 1.41048086e+000</_>
    <_>
      0. -1.51836336e+000 -2.</_>
    <_>
      1.13665318e+000 1.08420217e-019 1.62806535e+000</_>
    <_>
      -2. 1.72068858e+000 0.</_>
    <_>
      1.08420217e-019 1.74641204e+000 2.</_>
    <_>
      1.40827858e+000 0. -1.68207788e+000</_>
    <_>
      0. 1.75323272e+000 2.</_>
    <_>
      -3.68934881e+019 -1.37870860e+000 0.</_>
    <_>
      1.60712767e+000 -2. 1.59429753e+000</_>
    <_>
      0. -1.27103817e+000 -1.08420217e-019</_>
    <_>
      1.29902589e+000 -2. 1.56760073e+000</_>
    <_>
      -2. 1.61331534e+000 -1.08420217e-019</_>
    <_>
      -1.34687531e+000 0. -1.68723559e+000</_>
    <_>
      1.08420217e-019 1.63362789e+000 0.</_>
    <_>
      1.52310228e+000 2. -1.71684945e+000</_>
    <_>
      -1.08420217e-019 1.63875377e+000 1.08420217e-019</_>
    <_>
      -1.31038821e+000 3.68934881e+019 -1.74500978e+000</_>
    <_>
      -1.18534279e+000 0. -1.77599871e+000</_>
    <_>
      3.68934881e+019 1.66520143e+000 0.</_>
    <_>
      1.76085865e+000 -1.08420217e-019 -1.78582454e+000</_>
    <_>
      -1.34874749e+000 -1.08420217e-019 -1.79652596e+000</_>
    <_>
      1.08420217e-019 -1.41902769e+000 1.08420217e-019</_>
    <_>
      1.60717404e+000 0. -1.91421473e+000</_>
    <_>
      0. 1.19980109e+000 -3.68934881e+019</_>
    <_>
      2. -1.19141102e+000 -3.68934881e+019</_>
    <_>
      -1.22202420e+000 -3.68934881e+019 1.55258727e+000</_>
    <_>
      3.68934881e+019 -9.90321994e-001 -2.</_>
    <_>
      -1.32577407e+000 -3.68934881e+019 1.54893816e+000</_>
    <_>
      0. -1.52154613e+000 2.</_>
    <_>
      1.59029233e+000 2. 1.62841284e+000</_>
    <_>
      0. 1.60656774e+000 3.68934881e+019</_>
    <_>
      1.64741135e+000 -2. -1.89396048e+000</_>
    <_>
      -3.68934881e+019 -1.20601118e+000 -2.</_>
    <_>
      -9.99795973e-001 3.68934881e+019 1.25660408e+000</_>
    <_>
      1.08420217e-019 1.83387566e+000 2.</_>
    <_>
      -1.32769918e+000 0. 1.62197340e+000</_>
    <_>
      -1.31258857e+000 -1.08420217e-019 -1.77530491e+000</_>
    <_>
      3.68934881e+019 -1.52244020e+000 2.</_>
    <_>
      1.08420217e-019 1.67956758e+000 3.68934881e+019</_>
    <_>
      1.65632057e+000 -3.68934881e+019 -1.81425929e+000</_>
    <_>
      -1.08420217e-019 -1.52315247e+000 0.</_>
    <_>
      3.68934881e+019 1.83602500e+000 -3.68934881e+019</_>
    <_>
      -1.33897424e+000 0. 1.62234640e+000</_>
    <_>
      -1.08420217e-019 1.83222210e+000 0.</_>
    <_>
      -1.34316063e+000 3.68934881e+019 1.60477889e+000</_>
    <_>
      -1.13097882e+000 2. 1.62859035e+000</_>
    <_>
      -3.68934881e+019 -1.42041957e+000 0.</_>
    <_>
      -1.34316063e+000 1.08420217e-019 1.60911405e+000</_>
    <_>
      3.68934881e+019 -1.49893701e+000 2.</_>
    <_>
      -1.23789263e+000 -3.68934881e+019 1.62630820e+000</_>
    <_>
      -3.68934881e+019 -1.46401739e+000 -3.68934881e+019</_>
    <_>
      -1.34048319e+000 3.68934881e+019 1.61420918e+000</_>
    <_>
      -1.20197320e+000 0. 1.60126877e+000</_>
    <_>
      -1.29433560e+000 1.08420217e-019 -1.80484617e+000</_>
    <_>
      -3.68934881e+019 -1.43686962e+000 0.</_>
    <_>
      -1.33066809e+000 0. 1.61471117e+000</_>
    <_>
      0. -1.42313445e+000 3.68934881e+019</_>
    <_>
      -9.92367148e-001 1.08420217e-019 1.61058009e+000</_>
    <_>
      1.08420217e-019 1.68095350e+000 -2.</_>
    <_>
      -1.32577407e+000 -3.68934881e+019 -1.81082284e+000</_>
    <_>
      3.68934881e+019 -1.50517786e+000 -1.08420217e-019</_>
    <_>
      -1.28266478e+000 -2. 1.62714875e+000</_>
    <_>
      2. -1.28831398e+000 0.</_>
    <_>
      -1.27750039e+000 0. 1.57120192e+000</_>
    <_>
      3.68934881e+019 -1.38560283e+000 3.68934881e+019</_>
    <_>
      1.29612100e+000 1.08420217e-019 1.59642267e+000</_>
    <_>
      3.68934881e+019 1.68441987e+000 -3.68934881e+019</_>
    <_>
      -1.11039162e+000 0. -1.81479585e+000</_>
    <_>
      2. -1.52295375e+000 -2.</_>
    <_>
      1.85425425e+000 3.68934881e+019 -1.96784449e+000</_>
    <_>
      3.68934881e+019 1.63827145e+000 -2.</_>
    <_>
      -1.32577407e+000 2. -1.75058472e+000</_>
    <_>
      0. 1.65428412e+000 -1.08420217e-019</_>
    <_>
      -1.34687531e+000 0. -1.77088761e+000</_>
    <_>
      0. 1.64396131e+000 3.68934881e+019</_>
    <_>
      -1.24686003e+000 0. -1.77511048e+000</_>
    <_>
      0. 1.74344242e+000 3.68934881e+019</_>
    <_>
      1.10680509e+000 1.08420217e-019 -1.68881762e+000</_>
    <_>
      1.08420217e-019 1.55587173e+000 -1.08420217e-019</_>
    <_>
      -2. 1.59072709e+000 -3.68934881e+019</_>
    <_>
      -1.28080845e+000 -1.08420217e-019 -1.65615809e+000</_>
    <_>
      -1.08420217e-019 -1.38309908e+000 0.</_>
    <_>
      -1.31062710e+000 -3.68934881e+019 -1.39342010e+000</_>
    <_>
      0. 1.38785493e+000 2.</_>
    <_>
      -1.29031289e+000 -3.68934881e+019 1.27049243e+000</_>
    <_>
      -3.68934881e+019 1.41711986e+000 -2.</_>
    <_>
      -1.30036366e+000 2. 9.70731556e-001</_>
    <_>
      -1.08420217e-019 -1.51703572e+000 1.08420217e-019</_>
    <_>
      1.86073327e+000 1.08420217e-019 -1.96784925e+000</_>
    <_>
      0. -1.52427185e+000 1.08420217e-019</_>
    <_>
      -3.68934881e+019 -1.52091432e+000 0.</_>
    <_>
      -1.34874749e+000 3.68934881e+019 1.59749568e+000</_>
    <_>
      -1.08420217e-019 -1.39006937e+000 0.</_>
    <_>
      -1.34874749e+000 -3.68934881e+019 1.57074881e+000</_>
    <_>
      0. -1.36053324e+000 -3.68934881e+019</_>
    <_>
      -1.35326731e+000 0. 1.58335423e+000</_>
    <_>
      -1.08420217e-019 1.67737806e+000 0.</_>
    <_>
      -1.33066809e+000 0. -1.81676793e+000</_>
    <_>
      -1.34874749e+000 -2. 1.51382911e+000</_>
    <_>
      -2. 1.68473899e+000 0.</_>
    <_>
      -1.34874749e+000 0. -1.81509042e+000</_>
    <_>
      3.68934881e+019 -1.51787019e+000 0.</_>
    <_>
      -1.34874749e+000 0. 1.51253116e+000</_>
    <_>
      2. -1.44155884e+000 -1.08420217e-019</_>
    <_>
      -1.34687531e+000 0. 1.61286712e+000</_>
    <_>
      -3.68934881e+019 -1.40976119e+000 -1.08420217e-019</_>
    <_>
      0. -1.47950590e+000 2.</_>
    <_>
      -1.29902899e+000 1.08420217e-019 1.62343347e+000</_>
    <_>
      -2. -1.47527862e+000 -1.08420217e-019</_>
    <_>
      -1.34687531e+000 -3.68934881e+019 1.62208235e+000</_>
    <_>
      -1.31062710e+000 -3.68934881e+019 1.48793912e+000</_>
    <_>
      -1.08420217e-019 1.75985384e+000 2.</_>
    <_>
      -1.30173278e+000 -2. -1.60814285e+000</_>
    <_>
      0. -1.51474237e+000 -2.</_>
    <_>
      1.63419747e+000 0. -1.75316358e+000</_>
    <_>
      3.68934881e+019 1.58893728e+000 1.08420217e-019</_>
    <_>
      -1.34422767e+000 1.08420217e-019 -1.63230693e+000</_>
    <_>
      1.08420217e-019 1.03240001e+000 1.08420217e-019</_>
    <_>
      -1.33697081e+000 -1.08420217e-019 1.50806296e+000</_>
    <_>
      3.68934881e+019 1.07386184e+000 -1.08420217e-019</_>
    <_>
      1.69272411e+000 1.08420217e-019 1.50765800e+000</_>
    <_>
      -3.68934881e+019 1.39292109e+000 -1.08420217e-019</_>
    <_>
      1.50691092e+000 1.08420217e-019 -1.93855476e+000</_>
    <_>
      1.08420217e-019 -1.50104070e+000 1.08420217e-019</_>
    <_>
      1.47462344e+000 3.68934881e+019 1.62687278e+000</_>
    <_>
      2. 1.30626047e+000 2.</_>
    <_>
      1.61643636e+000 -1.08420217e-019 -1.94574904e+000</_>
    <_>
      0. -1.45644164e+000 3.68934881e+019</_>
    <_>
      3.68934881e+019 -1.44599771e+000 3.68934881e+019</_>
    <_>
      1.48080885e+000 -1.08420217e-019 1.61752224e+000</_>
    <_>
      0. -1.46586132e+000 0.</_>
    <_>
      -3.68934881e+019 -1.16466463e+000 -3.68934881e+019</_>
    <_>
      -1.08420217e-019 1.18272364e+000 3.68934881e+019</_>
    <_>
      1.59199405e+000 2. -1.85410583e+000</_>
    <_>
      0. 1.76776958e+000 2.</_>
    <_>
      -1.33463144e+000 0. 1.62542772e+000</_>
    <_>
      -2. -1.47925007e+000 0.</_>
    <_>
      -1.33066809e+000 1.08420217e-019 1.62361848e+000</_>
    <_>
      1.08420217e-019 1.24080169e+000 0.</_></support_vectors>
  <decision_functions>
    <_>
      <sv_count>181</sv_count>
      <rho>-1.7110759988984381e-001</rho>
      <alpha>
        7.9508405022178075e-001 7.9457968055898021e-001 10.
        2.8963655477820738e-001 10. 10. 5.3299513106351810e+000
        9.9970416331182737e+000 10. 8.2859453073220080e-001 10. 10.
        1.9130712696719379e+000 7.1875428880962131e+000
        5.7719708488587229e-001 10. 10. 5.6507597112887629e+000
        8.3008048125998413e-001 10. 10. 10. 7.9636495372697755e+000 10.
        4.4929910817026503e-001 10. 6.7718895019251113e-001
        1.4812234559623101e+000 10. 10. 4.1767365001901560e+000 10.
        8.2889237202025756e-001 10. 1.1684606630549486e+000 10. 10.
        1.5773927451996528e+000 10. 10. 4.1869281888076626e-001
        7.6896170768451073e+000 3.4481105785424617e+000 10.
        6.5632511757239529e+000 7.2181562725641264e+000 10.
        3.1071269053267208e+000 10. 10. 2.7930483840619458e-001 10.
        5.6422213819139722e-001 3.8468152244766207e+000 10. 10.
        6.1219676576569970e+000 9.1776265723357096e+000
        4.1869283217538078e-001 10. 10. 4.7132351592988595e+000 10. 10.
        10. 8.2889237272265170e-001 8.2889238722977665e-001
        5.9571023729607129e+000 8.2889239042943152e-001 10. 10.
        4.5840758623441102e-001 4.3164816706201217e+000
        7.5912583201881245e-001 5.7719716736937865e-001
        7.4264252335362990e-001 1.5738936434784867e+000 10. 10.
        4.1536212206546513e-001 6.6004891161393120e+000
        8.2889242687409026e-001 10. 5.8604566320751381e+000 10.
        2.0628679105330003e+000 10. 8.5832411685987098e-001 10. 10.
        4.1536179986974159e-001 4.4806604973033286e+000
        1.8391657564910113e+000 7.0331395819371867e-001
        9.5633347929808519e+000 -10. -10. -10. -10. -10.
        -1.1711083934759008e+000 -9.3863149695493042e-001
        -5.8593135546961150e-001 -6.2579677053028238e-001
        -8.0546533896502321e+000 -10. -3.5106630009695794e-001 -10.
        -6.0472511008026224e+000 -5.9125693892992874e+000
        -1.2131986446424590e+000 -1.4455801602815832e+000
        -1.1711075802053761e+000 -10. -10. -10. -10. -10. -10.
        -2.1130285056888991e+000 -10. -10. -6.6019746861252635e+000 -10.
        -9.3863160092209819e-001 -2.0470989387274914e+000
        -1.7416464894467568e-001 -1.1711076397104523e+000
        -1.1925110876030085e+000 -10. -3.1830964372442012e+000 -10. -10.
        -10. -9.3041036391801342e+000 -1.0480405278132077e+000
        -5.5184330844552685e+000 -10. -10. -10. -6.2579491884399785e-001
        -10. -10. -5.8593095064551326e-001 -5.5233205212069159e+000 -10.
        -10. -10. -10. -10. -10. -10. -10. -10. -1.1719491228118040e+000
        -10. -10. -10. -10. -3.4499006784288117e-001 -10.
        -5.8334188913814367e-001 -3.3297898034330529e+000
        -2.1402192332484922e+000 -5.2820501117929028e+000 -10. -10.
        -1.1722404840296663e+000 -10. -10. -10. -3.4892766079525477e+000
        -9.7091031888282195e+000 -2.0691080631364809e+000
        -1.4819213495687780e+000 -6.5231076446123994e+000 -10. -10.
        -6.0715170876933888e-001 -10. -1.1345778098494206e+000</alpha>
      <index>
        0 1 2 3 4 5 6 7 8 9 10 11 12 13 14 15 16 17 18 19 20 21 22 23 24
        25 26 27 28 29 30 31 32 33 34 35 36 37 38 39 40 41 42 43 44 45
        46 47 48 49 50 51 52 53 54 55 56 57 58 59 60 61 62 63 64 65 66
        67 68 69 70 71 72 73 74 75 76 77 78 79 80 81 82 83 84 85 86 87
        88 89 90 91 92 93 94 95 96 97 98 99 100 101 102 103 104 105 106
        107 108 109 110 111 112 113 114 115 116 117 118 119 120 121 122
        123 124 125 126 127 128 129 130 131 132 133 134 135 136 137 138
        139 140 141 142 143 144 145 146 147 148 149 150 151 152 153 154
        155 156 157 158 159 160 161 162 163 164 165 166 167 168 169 170
        171 172 173 174 175 176 177 178 179 180</index></_></decision_functions></my_svm>
</opencv_storage>
